name,emb_0,emb_1,emb_2,emb_3,emb_4,emb_5,emb_6,emb_7,emb_8,emb_9,emb_10,emb_11,emb_12,emb_13,emb_14,emb_15,emb_16,emb_17,emb_18,emb_19,emb_20,emb_21,emb_22,emb_23,emb_24,emb_25,emb_26,emb_27,emb_28,emb_29,emb_30,emb_31,emb_32,emb_33,emb_34,emb_35,emb_36,emb_37,emb_38,emb_39,emb_40,emb_41,emb_42,emb_43,emb_44,emb_45,emb_46,emb_47,emb_48,emb_49,emb_50,emb_51,emb_52,emb_53,emb_54,emb_55,emb_56,emb_57,emb_58,emb_59,emb_60,emb_61,emb_62,emb_63,emb_64,emb_65,emb_66,emb_67,emb_68,emb_69,emb_70,emb_71,emb_72,emb_73,emb_74,emb_75,emb_76,emb_77,emb_78,emb_79,emb_80,emb_81,emb_82,emb_83,emb_84,emb_85,emb_86,emb_87,emb_88,emb_89,emb_90,emb_91,emb_92,emb_93,emb_94,emb_95,emb_96,emb_97,emb_98,emb_99,emb_100,emb_101,emb_102,emb_103,emb_104,emb_105,emb_106,emb_107,emb_108,emb_109,emb_110,emb_111,emb_112,emb_113,emb_114,emb_115,emb_116,emb_117,emb_118,emb_119,emb_120,emb_121,emb_122,emb_123,emb_124,emb_125,emb_126,emb_127,emb_128,emb_129,emb_130,emb_131,emb_132,emb_133,emb_134,emb_135,emb_136,emb_137,emb_138,emb_139,emb_140,emb_141,emb_142,emb_143,emb_144,emb_145,emb_146,emb_147,emb_148,emb_149,emb_150,emb_151,emb_152,emb_153,emb_154,emb_155,emb_156,emb_157,emb_158,emb_159,emb_160,emb_161,emb_162,emb_163,emb_164,emb_165,emb_166,emb_167,emb_168,emb_169,emb_170,emb_171,emb_172,emb_173,emb_174,emb_175,emb_176,emb_177,emb_178,emb_179,emb_180,emb_181,emb_182,emb_183,emb_184,emb_185,emb_186,emb_187,emb_188,emb_189,emb_190,emb_191,emb_192,emb_193,emb_194,emb_195,emb_196,emb_197,emb_198,emb_199,emb_200,emb_201,emb_202,emb_203,emb_204,emb_205,emb_206,emb_207,emb_208,emb_209,emb_210,emb_211,emb_212,emb_213,emb_214,emb_215,emb_216,emb_217,emb_218,emb_219,emb_220,emb_221,emb_222,emb_223,emb_224,emb_225,emb_226,emb_227,emb_228,emb_229,emb_230,emb_231,emb_232,emb_233,emb_234,emb_235,emb_236,emb_237,emb_238,emb_239,emb_240,emb_241,emb_242,emb_243,emb_244,emb_245,emb_246,emb_247,emb_248,emb_249,emb_250,emb_251,emb_252,emb_253,emb_254,emb_255,emb_256,emb_257,emb_258,emb_259,emb_260,emb_261,emb_262,emb_263,emb_264,emb_265,emb_266,emb_267,emb_268,emb_269,emb_270,emb_271,emb_272,emb_273,emb_274,emb_275,emb_276,emb_277,emb_278,emb_279,emb_280,emb_281,emb_282,emb_283,emb_284,emb_285,emb_286,emb_287,emb_288,emb_289,emb_290,emb_291,emb_292,emb_293,emb_294,emb_295,emb_296,emb_297,emb_298,emb_299,emb_300,emb_301,emb_302,emb_303,emb_304,emb_305,emb_306,emb_307,emb_308,emb_309,emb_310,emb_311,emb_312,emb_313,emb_314,emb_315,emb_316,emb_317,emb_318,emb_319
native,0.054076630622148514,-0.0062169767916202545,0.09355541318655014,0.09833893924951553,0.08159435540437698,-0.11421964317560196,-0.160250723361969,-0.18802885711193085,0.012725957669317722,-0.14865608513355255,0.10587015002965927,0.20612414181232452,-0.04487274959683418,0.05490126088261604,0.14956368505954742,-0.036469560116529465,0.13807913661003113,0.09538334608078003,-0.02047480084002018,0.24773363769054413,0.046610668301582336,0.1668817549943924,-0.10257606208324432,0.0465073361992836,0.1810835897922516,0.15867532789707184,-0.09244541078805923,-0.13824717700481415,-0.15232519805431366,0.04145117476582527,-0.31104758381843567,-0.0064415717497467995,0.26579684019088745,-0.16946159303188324,0.1346508115530014,-0.05913691222667694,-0.169227734208107,-0.07087043672800064,0.262411504983902,0.09991700202226639,-0.06748151034116745,0.07421226799488068,0.07028838247060776,0.07755717635154724,-0.07082172483205795,-0.004471497144550085,-1.0480314493179321,0.1162901297211647,-0.2172965258359909,0.022019540891051292,-0.05023058503866196,0.0928417518734932,-0.08844403177499771,-0.05044947937130928,0.03070707619190216,-0.2811993956565857,0.23461401462554932,0.09905903041362762,-0.03987067565321922,0.15845471620559692,0.1113184243440628,-0.0173079464584589,-5.079707622528076,-0.3169907033443451,0.06589561700820923,-0.05432296544313431,0.005752622615545988,0.26040729880332947,0.12110012024641037,0.059803273528814316,-0.19782300293445587,0.12823283672332764,0.06955766677856445,-0.1894429326057434,-0.011709767393767834,-0.1926751732826233,0.06840808689594269,0.21631841361522675,-0.23993664979934692,0.11033298075199127,0.2983382046222687,0.093167744576931,-0.15912440419197083,0.14221636950969696,-0.10786747932434082,-0.09426979720592499,0.158230260014534,0.01705756038427353,0.04304994270205498,0.11457112431526184,0.04684804379940033,0.037386730313301086,0.1384439319372177,0.2730255424976349,-0.10999347269535065,-0.033036570996046066,0.06495412439107895,0.06230860576033592,-0.17818552255630493,-0.24027378857135773,0.2681695818901062,-0.04510081559419632,-0.02708868868649006,0.08427605032920837,-0.03509119153022766,0.13072815537452698,-0.08997910469770432,0.004522582516074181,0.012374426238238811,-0.1883237361907959,-0.049557704478502274,0.17845049500465393,0.011036920361220837,0.01596071943640709,0.06282611936330795,-0.03443019464612007,0.2554112672805786,0.0250152088701725,-0.09523248672485352,0.20605488121509552,-0.000234048260608688,0.02131679281592369,0.21866187453269958,0.3040046691894531,0.038452163338661194,0.05332181975245476,0.08117106556892395,-0.06987357884645462,-0.15947778522968292,-0.08350731432437897,0.17719995975494385,-0.24916931986808777,-0.1304270178079605,-0.1159333735704422,0.1473795622587204,-0.0034638906363397837,-0.12643185257911682,0.26520752906799316,-0.2104371190071106,-0.09773165732622147,0.11917352676391602,-0.26474425196647644,0.017013924196362495,0.18537668883800507,-0.06275424361228943,-0.16579729318618774,0.05738313868641853,-0.12201078981161118,-0.1390596330165863,-0.02913764677941799,0.02416186034679413,0.05634370446205139,-0.13254258036613464,-0.26109668612480164,-0.08302435278892517,0.07084318995475769,0.028842639178037643,0.1961367428302765,-0.11655861139297485,0.2624967396259308,-0.06607048958539963,0.004287998657673597,0.12485924363136292,0.15507294237613678,-0.21391408145427704,-0.008790077641606331,0.07767330855131149,-0.05217570811510086,0.019866572692990303,-0.0499221496284008,0.21386824548244476,-0.1130535677075386,0.20225466787815094,-0.22252017259597778,0.262963205575943,0.28693291544914246,-0.009394856169819832,-0.08525680005550385,0.02872529812157154,-0.1193985790014267,0.28137466311454773,-0.10882270336151123,0.0005051843472756445,0.0013096799375489354,-0.024735895916819572,-0.015543361194431782,-0.27269771695137024,0.296354204416275,0.14086227118968964,-0.09439010173082352,-0.08209067583084106,0.013849365524947643,-0.04612546041607857,0.16740940511226654,-0.015089692547917366,0.060251809656620026,-0.27522850036621094,0.19359201192855835,0.27959713339805603,-0.1099669486284256,-0.15375643968582153,0.4384593367576599,0.258796751499176,0.19367000460624695,0.004134150221943855,0.08124981820583344,-0.02019234374165535,0.15899918973445892,-0.006244917865842581,0.1561759114265442,-0.017597079277038574,-0.10036240518093109,-0.15280094742774963,0.05606101080775261,0.03978285938501358,0.010601368732750416,0.06884272396564484,-0.04679476097226143,0.09116317331790924,0.054660864174366,-0.07906638830900192,-0.22286741435527802,0.1032794937491417,0.06724640727043152,-0.016466790810227394,-0.045716434717178345,-0.3582945168018341,0.030293338000774384,-0.008118321187794209,-0.017873555421829224,-0.02045862004160881,0.046443354338407516,0.018364090472459793,-0.20811331272125244,0.11444611847400665,0.045958854258060455,-0.03156829625368118,-0.023069316521286964,0.09751878678798676,0.08164376765489578,-0.003520295023918152,-0.18708886206150055,0.2789144814014435,-0.15959328413009644,0.06336730718612671,0.01597980596125126,0.1527940183877945,0.1830020397901535,-0.045871615409851074,0.16524763405323029,0.10048631578683853,-0.029852090403437614,0.030004559084773064,0.006589903496205807,-0.1675862818956375,0.20395827293395996,-0.09165101498365402,0.013693848624825478,0.24882426857948303,0.21671704947948456,0.02361007034778595,0.01537780836224556,-0.12612420320510864,0.01810714602470398,0.023834874853491783,0.18946760892868042,-0.019415445625782013,-0.1132253035902977,0.3152677118778229,-0.10490403324365616,0.09425847977399826,0.0406462661921978,-0.09344219416379929,-0.0028800605796277523,-0.17739111185073853,-0.07307219505310059,0.04118160530924797,0.014671070501208305,0.08715475350618362,-0.029952678829431534,-0.25843334197998047,0.10360990464687347,0.2311154007911682,0.031813330948352814,0.1126662939786911,0.5356852412223816,-0.08597535640001297,-0.3633432686328888,-0.13161540031433105,-0.021795591339468956,0.09664233773946762,-0.0041592619381845,-0.04761270806193352,0.24947188794612885,-0.04924609512090683,-0.04683910682797432,-0.23569364845752716,-0.14763668179512024,-0.14020080864429474,0.08349893242120743,0.20685389637947083,-0.08335110545158386,-0.03069481998682022,0.1732245534658432,-0.21037526428699493,-0.4068871736526489,-0.045382022857666016,-0.1282312273979187,-0.028288772329688072,-0.1302192360162735,-0.06707450747489929,-0.025447262451052666,-0.0008910871110856533,-0.10399843752384186,-0.06997118890285492,-0.2416081577539444,-0.24528343975543976,0.0756199061870575,-0.01255504135042429,-0.13796702027320862
design_1,0.04807952791452408,0.0012782322010025382,0.10375340282917023,0.1017366349697113,0.076322041451931,-0.11980690807104111,-0.16301384568214417,-0.19323670864105225,0.00725408224388957,-0.14396615326404572,0.10443092882633209,0.2032104730606079,-0.03535326197743416,0.043567758053541183,0.14534029364585876,-0.031404465436935425,0.13227704167366028,0.09996623545885086,-0.03271596506237984,0.2467651665210724,0.0430992916226387,0.1646512746810913,-0.11172297596931458,0.04539109021425247,0.1731967180967331,0.1646108627319336,-0.089210145175457,-0.1299208104610443,-0.16449414193630219,0.04611475393176079,-0.3071909546852112,-0.012904287315905094,0.26408669352531433,-0.18124108016490936,0.13918325304985046,-0.06691151857376099,-0.17124424874782562,-0.06869520992040634,0.25114038586616516,0.10001164674758911,-0.07372387498617172,0.07361749559640884,0.06949666887521744,0.08244049549102783,-0.07500263303518295,0.001419672742486,-1.0496034622192383,0.10763143748044968,-0.2207334190607071,0.029325904324650764,-0.051289405673742294,0.09044663608074188,-0.09076271206140518,-0.04058811441063881,0.030553368851542473,-0.2792867124080658,0.23495708405971527,0.09162653982639313,-0.04131881520152092,0.15891152620315552,0.1105753481388092,-0.019362540915608406,-5.077299118041992,-0.32076185941696167,0.062053583562374115,-0.06775690615177155,-0.009051814675331116,0.26522913575172424,0.12721487879753113,0.062343914061784744,-0.18364927172660828,0.13922183215618134,0.06283476948738098,-0.1913413554430008,-0.012196372263133526,-0.19880297780036926,0.07252926379442215,0.20732785761356354,-0.24175520241260529,0.11896971613168716,0.2998546063899994,0.0892423689365387,-0.1566186249256134,0.1364947408437729,-0.10841891914606094,-0.0905819833278656,0.15400685369968414,0.016581613570451736,0.04157913103699684,0.12838506698608398,0.05169685557484627,0.04385511204600334,0.13600385189056396,0.27702268958091736,-0.11880718171596527,-0.03047342598438263,0.07360900193452835,0.06759034842252731,-0.175480455160141,-0.23371489346027374,0.27566877007484436,-0.04289891570806503,-0.02416522055864334,0.0835980549454689,-0.03172779083251953,0.13617990911006927,-0.09183264523744583,-0.0030522027518600225,0.014623574912548065,-0.1895328164100647,-0.05222557112574577,0.18215446174144745,0.008012698963284492,0.012519599869847298,0.05773346126079559,-0.04114210233092308,0.2608692944049835,0.020848888903856277,-0.10335811227560043,0.21235604584217072,-0.004682414699345827,0.02223244681954384,0.21450814604759216,0.3115396797657013,0.031133921816945076,0.05322974920272827,0.08355049788951874,-0.056336257606744766,-0.16301491856575012,-0.08002452552318573,0.1738005429506302,-0.25061923265457153,-0.14172710478305817,-0.12296446412801743,0.137008398771286,-0.002589341951534152,-0.13086380064487457,0.2755032777786255,-0.211851105093956,-0.09164503216743469,0.11062287539243698,-0.2520275413990021,0.019744407385587692,0.18196143209934235,-0.05898450314998627,-0.1691591441631317,0.06152511015534401,-0.12728732824325562,-0.14539633691310883,-0.033413469791412354,0.022909604012966156,0.05137256905436516,-0.12641401588916779,-0.25185632705688477,-0.07626643776893616,0.07651136070489883,0.019153492525219917,0.2011716216802597,-0.1191604807972908,0.25873786211013794,-0.07265409082174301,0.0015416485257446766,0.12750355899333954,0.15632085502147675,-0.21669095754623413,-0.005564548075199127,0.08002009987831116,-0.05132622644305229,0.025252707302570343,-0.04671051353216171,0.22957228124141693,-0.10546363145112991,0.20953479409217834,-0.20740137994289398,0.27248647809028625,0.2827078402042389,-0.018177201971411705,-0.08043408393859863,0.027379965409636497,-0.1138969138264656,0.2902050018310547,-0.10621669888496399,0.0015246097464114428,0.007490287069231272,-0.022064195945858955,-0.009162002243101597,-0.26261574029922485,0.29734793305397034,0.13542990386486053,-0.10936218500137329,-0.0919928029179573,0.01862017624080181,-0.047597821801900864,0.16832445561885834,-0.021812202408909798,0.06492258608341217,-0.2748469412326813,0.20506007969379425,0.2781769335269928,-0.10683993995189667,-0.15848271548748016,0.4413009583950043,0.251267671585083,0.1871822029352188,0.0007544371765106916,0.09394137561321259,-0.02133582904934883,0.1849108785390854,-0.006475501228123903,0.15841589868068695,-0.018882598727941513,-0.10102962702512741,-0.15632490813732147,0.06534219533205032,0.034311436116695404,0.011682338081300259,0.06268961727619171,-0.04027727246284485,0.1012454479932785,0.053908541798591614,-0.07383674383163452,-0.23650509119033813,0.09976566582918167,0.06696754693984985,-0.0166946928948164,-0.038357194513082504,-0.35362616181373596,0.0243120938539505,-0.005828120745718479,-0.015455256216228008,-0.01592332124710083,0.04555557668209076,0.01196183729916811,-0.2107551097869873,0.1201687678694725,0.047769635915756226,-0.030917592346668243,-0.038169898092746735,0.09476867318153381,0.07712843269109726,-0.00028783775633201003,-0.18888267874717712,0.2805452048778534,-0.16243815422058105,0.0662868395447731,0.007043843623250723,0.14790259301662445,0.1812388300895691,-0.04490506276488304,0.16006530821323395,0.10000220686197281,-0.028044870123267174,0.028903372585773468,0.005837822332978249,-0.1803039014339447,0.2064676284790039,-0.09706078469753265,0.016394328325986862,0.2472304105758667,0.22018878161907196,0.02085958793759346,0.012479142285883427,-0.11979814618825912,0.007673971820622683,0.03241584077477455,0.1879175305366516,-0.02482232265174389,-0.11199814826250076,0.3188624680042267,-0.10825855284929276,0.10217463225126266,0.03164881095290184,-0.08976951241493225,-0.00012189588596811518,-0.16969312727451324,-0.0709516704082489,0.044283490628004074,0.016107015311717987,0.09197531640529633,-0.027520276606082916,-0.26388293504714966,0.10730794072151184,0.22859759628772736,0.043642617762088776,0.1183544471859932,0.535162091255188,-0.09666351974010468,-0.36149680614471436,-0.14162278175354004,-0.02134288288652897,0.09844265133142471,-0.006414280738681555,-0.04932892322540283,0.26106351613998413,-0.05144672840833664,-0.05163783207535744,-0.23346517980098724,-0.148175910115242,-0.14903055131435394,0.08392129838466644,0.2093246579170227,-0.08146564662456512,-0.03153076395392418,0.1754055768251419,-0.21019652485847473,-0.4147816002368927,-0.04821186885237694,-0.13743266463279724,-0.026509348303079605,-0.12567012012004852,-0.0697670429944992,-0.030546823516488075,-0.0015937128337100148,-0.09895621240139008,-0.07836543768644333,-0.24575896561145782,-0.24501252174377441,0.08098527044057846,-0.011177979409694672,-0.13726066052913666
design_2,0.06874178349971771,0.007371847052127123,0.09625249356031418,0.10694554448127747,0.09311291575431824,-0.115592360496521,-0.16452163457870483,-0.19129431247711182,0.019531505182385445,-0.14749903976917267,0.11304927617311478,0.21747227013111115,-0.047358471900224686,0.045293476432561874,0.13126881420612335,-0.030190741643309593,0.1380312293767929,0.09018493443727493,-0.0032645876053720713,0.23559212684631348,0.06341072171926498,0.1660924106836319,-0.09762760996818542,0.040694162249565125,0.19035379588603973,0.14995628595352173,-0.0905923992395401,-0.12515729665756226,-0.1487826108932495,0.04689153656363487,-0.3137926161289215,0.006358492188155651,0.26722899079322815,-0.17605812847614288,0.12533175945281982,-0.05905694514513016,-0.16996656358242035,-0.07301846146583557,0.2509588897228241,0.08901946246623993,-0.06536401808261871,0.07458369433879852,0.0697212815284729,0.07532737404108047,-0.07703737169504166,-0.013283045031130314,-1.0910286903381348,0.12120617926120758,-0.22238340973854065,0.025632545351982117,-0.04933367669582367,0.08705248683691025,-0.07624280452728271,-0.04149501398205757,0.02454618737101555,-0.2860051095485687,0.23572593927383423,0.09820385277271271,-0.054986726492643356,0.1591177135705948,0.11743508279323578,-0.014027600176632404,-5.079601764678955,-0.3143858313560486,0.06764467060565948,-0.05037304759025574,0.0011533499928191304,0.2714976370334625,0.12627814710140228,0.06627276539802551,-0.18512000143527985,0.13682834804058075,0.06873651593923569,-0.19662193953990936,8.003471157280728e-05,-0.20118848979473114,0.07303985953330994,0.20320186018943787,-0.2381591647863388,0.10457688570022583,0.31227049231529236,0.09568532556295395,-0.14747579395771027,0.14316512644290924,-0.11310918629169464,-0.09542766213417053,0.15006880462169647,0.017444565892219543,0.051552221179008484,0.11244720220565796,0.05096423625946045,0.033708278089761734,0.14168159663677216,0.28222450613975525,-0.1183343380689621,-0.04100489616394043,0.06795550882816315,0.055909622460603714,-0.1825760155916214,-0.24176901578903198,0.2728481590747833,-0.043045058846473694,-0.01922142133116722,0.07858924567699432,-0.03680682182312012,0.11782027781009674,-0.08581357449293137,0.018595846369862556,0.009909503161907196,-0.197993203997612,-0.06238669157028198,0.18484555184841156,0.0022971255239099264,0.020055800676345825,0.05305026099085808,-0.04123741015791893,0.25628167390823364,0.030602097511291504,-0.09493160992860794,0.2046377807855606,-0.007023504935204983,0.03144936263561249,0.21082307398319244,0.3001704812049866,0.027744699269533157,0.05615098401904106,0.08129435032606125,-0.06091572716832161,-0.16915103793144226,-0.09661656618118286,0.18046683073043823,-0.2350098192691803,-0.12979882955551147,-0.11185450106859207,0.1430986225605011,0.004637657664716244,-0.12465102970600128,0.2635135352611542,-0.2215157300233841,-0.10918603092432022,0.11557730287313461,-0.26083993911743164,0.012495280243456364,0.1835317760705948,-0.06175252050161362,-0.15817444026470184,0.05234185978770256,-0.12337040901184082,-0.14000625908374786,-0.04868528991937637,0.02475227415561676,0.06793886423110962,-0.13013793528079987,-0.25681525468826294,-0.0785706415772438,0.062229372560977936,0.018109023571014404,0.200603187084198,-0.12428406625986099,0.2696729600429535,-0.06471829116344452,0.003579670563340187,0.13594414293766022,0.1572432965040207,-0.21754150092601776,0.005993855185806751,0.08216516673564911,-0.04656948521733284,0.011347535066306591,-0.05114998295903206,0.21632453799247742,-0.11528589576482773,0.2045212686061859,-0.22564846277236938,0.26818621158599854,0.29677924513816833,-0.021939922124147415,-0.07750391960144043,0.024798065423965454,-0.12994632124900818,0.26720109581947327,-0.09343094378709793,0.006146305240690708,-0.00924608763307333,-0.02834847755730152,-0.01829363964498043,-0.25149062275886536,0.3049212396144867,0.14623701572418213,-0.07375949621200562,-0.08887645602226257,0.02039237879216671,-0.05886203423142433,0.17444010078907013,-0.019226668402552605,0.05796334519982338,-0.26235416531562805,0.20011499524116516,0.26462581753730774,-0.12104229629039764,-0.13882072269916534,0.452463299036026,0.25585609674453735,0.20184773206710815,-0.0034526425879448652,0.08055856823921204,-0.011278013698756695,0.14584681391716003,-0.016847481951117516,0.1439848691225052,-0.015158770605921745,-0.10824565589427948,-0.1449153870344162,0.06348222494125366,0.04253242537379265,-0.004831284284591675,0.07504554092884064,-0.035430729389190674,0.09285739809274673,0.05934089794754982,-0.07309071719646454,-0.22496441006660461,0.10911844670772552,0.05552957206964493,-0.009988735429942608,-0.054244957864284515,-0.35926395654678345,0.027204658836126328,-0.010209981352090836,-0.027269409969449043,-0.022965747863054276,0.05146903917193413,0.022091517224907875,-0.19954076409339905,0.11540770530700684,0.04222555458545685,-0.00558293703943491,-0.03506283089518547,0.09315621107816696,0.08334042131900787,-0.0063915797509253025,-0.18783046305179596,0.27556121349334717,-0.1603596955537796,0.05958429351449013,0.01478525809943676,0.15501552820205688,0.1912592649459839,-0.05285889282822609,0.17064130306243896,0.10528932511806488,-0.01537824422121048,0.019885655492544174,0.015129778534173965,-0.1743803173303604,0.20659500360488892,-0.09572847932577133,0.011591838672757149,0.2763760983943939,0.21107518672943115,0.016308417543768883,0.009095695801079273,-0.11488499492406845,0.02513730339705944,0.024501323699951172,0.19431167840957642,-0.028457343578338623,-0.10720693320035934,0.3345876932144165,-0.09681780636310577,0.10326065123081207,0.04580831900238991,-0.09342093765735626,-0.018129562959074974,-0.17906193435192108,-0.07931238412857056,0.04727089777588844,0.00600797263905406,0.08992958813905716,-0.025666149333119392,-0.27010077238082886,0.10102023929357529,0.22820742428302765,0.03052295558154583,0.11829742789268494,0.5441343188285828,-0.08821234107017517,-0.3664725422859192,-0.13219478726387024,-0.017645712941884995,0.08999395370483398,-0.01768716610968113,-0.06227573752403259,0.260809987783432,-0.043428122997283936,-0.06353280693292618,-0.23009222745895386,-0.14588868618011475,-0.1464756727218628,0.08333991467952728,0.20332622528076172,-0.07967676222324371,-0.03426031023263931,0.177553191781044,-0.21403685212135315,-0.42234230041503906,-0.05100654438138008,-0.13437025249004364,-0.03821671009063721,-0.1310867965221405,-0.05589105188846588,-0.029588764533400536,0.0099119171500206,-0.10542095452547073,-0.0657455250620842,-0.24985146522521973,-0.24418781697750092,0.0755210891366005,-0.01672770455479622,-0.14332304894924164
design_3,0.05409609526395798,0.007211305201053619,0.09667529165744781,0.1032719537615776,0.0849396362900734,-0.09506579488515854,-0.1667182445526123,-0.18714022636413574,-0.007562397979199886,-0.15172496438026428,0.09289857745170593,0.20842872560024261,-0.04159774258732796,0.05666542425751686,0.1459115892648697,-0.02910909429192543,0.1312592774629593,0.09700867533683777,-0.037623412907123566,0.23897092044353485,0.04206765815615654,0.1658625602722168,-0.0870780199766159,0.03173919394612312,0.1724611222743988,0.16626951098442078,-0.09721977263689041,-0.14086636900901794,-0.1616649180650711,0.04842709004878998,-0.32270118594169617,0.00628627510741353,0.2571220397949219,-0.1371803730726242,0.13392218947410583,-0.05774066969752312,-0.1856527030467987,-0.0835433378815651,0.2664090692996979,0.1071338877081871,-0.06192292645573616,0.07842123508453369,0.06100279092788696,0.06147031486034393,-0.05552951991558075,-0.0009244082029908895,-1.0527942180633545,0.12019971758127213,-0.23517602682113647,0.026036009192466736,-0.03263198956847191,0.08229765295982361,-0.09808135777711868,-0.04622862860560417,0.03328058123588562,-0.2766297459602356,0.23508228361606598,0.08958279341459274,-0.02361617051064968,0.16199132800102234,0.12045224010944366,-0.015572446398437023,-5.074948787689209,-0.31315961480140686,0.06684090197086334,-0.05106547474861145,0.004413433372974396,0.26712727546691895,0.12596561014652252,0.05364082008600235,-0.19576939940452576,0.13583096861839294,0.07832568138837814,-0.19429048895835876,0.010072039440274239,-0.18231894075870514,0.06428221613168716,0.21360163390636444,-0.22274848818778992,0.10666579753160477,0.29784584045410156,0.09905526787042618,-0.14289560914039612,0.1331595629453659,-0.09713812172412872,-0.0878516435623169,0.16402824223041534,0.007192796561866999,0.046519067138433456,0.1189483106136322,0.03321535140275955,0.020446499809622765,0.14185719192028046,0.2566761374473572,-0.09196265041828156,-0.02721220813691616,0.06366933137178421,0.06827282160520554,-0.1835726946592331,-0.24987491965293884,0.2756246328353882,-0.05122436583042145,-0.0437275692820549,0.07621482759714127,-0.03122272714972496,0.13422703742980957,-0.0978562980890274,0.012306519784033298,0.007235429249703884,-0.19399027526378632,-0.044838543981313705,0.18039409816265106,-0.0070899175480008125,0.02758036181330681,0.07183662801980972,-0.0482027530670166,0.26199886202812195,0.024662239477038383,-0.09630893170833588,0.18156997859477997,0.014103543013334274,0.025062406435608864,0.213351771235466,0.27912089228630066,0.05434570461511612,0.07291877269744873,0.09319651871919632,-0.05664603412151337,-0.14682531356811523,-0.06878434121608734,0.16431193053722382,-0.23198947310447693,-0.14115466177463531,-0.12282852828502655,0.14401137828826904,0.015524327754974365,-0.1368725597858429,0.2639006972312927,-0.20875631272792816,-0.11182134598493576,0.12840595841407776,-0.25788623094558716,0.014356615953147411,0.1796419769525528,-0.06340958923101425,-0.17546768486499786,0.0666697770357132,-0.12331507354974747,-0.14139173924922943,-0.012347458861768246,0.04215901345014572,0.043545305728912354,-0.13023459911346436,-0.24391460418701172,-0.0785207524895668,0.07979308068752289,0.026231002062559128,0.20744997262954712,-0.11384957283735275,0.26427575945854187,-0.058860816061496735,0.011482656002044678,0.10815423727035522,0.17381101846694946,-0.21675923466682434,0.00183781364466995,0.08536706864833832,-0.05445917323231697,0.02082555927336216,-0.04955669865012169,0.19858016073703766,-0.1089501827955246,0.2154708206653595,-0.22376884520053864,0.23909559845924377,0.29471200704574585,-0.0006172947469167411,-0.08777254819869995,0.012166926637291908,-0.11842528730630875,0.2737812399864197,-0.12759241461753845,-0.005010050255805254,0.02381983771920204,-0.031139299273490906,-0.012306747026741505,-0.256731241941452,0.29526853561401367,0.13980399072170258,-0.10300775617361069,-0.0855138972401619,0.0036536219995468855,-0.05395196005702019,0.1563379317522049,-0.013882119208574295,0.05946304649114609,-0.2880636155605316,0.21806252002716064,0.2822209298610687,-0.1004846915602684,-0.1600961536169052,0.4304673671722412,0.25057080388069153,0.18567843735218048,0.01968824490904808,0.07874640822410583,-0.01744404062628746,0.1293644905090332,-0.03856698051095009,0.1290546953678131,-0.0211422611027956,-0.1087595745921135,-0.12165556848049164,0.06636656820774078,0.04317161813378334,-0.00027176010189577937,0.06465118378400803,-0.05726153776049614,0.09489945322275162,0.05646730214357376,-0.07447590678930283,-0.22821183502674103,0.10531207919120789,0.06125545874238014,-0.01969863846898079,-0.06941662728786469,-0.3461003005504608,0.039491817355155945,-0.001833963324315846,-0.011705960147082806,-0.004467852413654327,0.03770282119512558,0.016237430274486542,-0.2227470576763153,0.11060213297605515,0.032178740948438644,-0.026865245774388313,-0.023895826190710068,0.09680590778589249,0.06896280497312546,0.012561826966702938,-0.18353280425071716,0.28002041578292847,-0.14292901754379272,0.0707913488149643,0.004509610589593649,0.14211177825927734,0.18180692195892334,-0.060350943356752396,0.15151441097259521,0.11045798659324646,0.003406705567613244,0.0275574978441,0.0166044719517231,-0.16993486881256104,0.20412923395633698,-0.0908205434679985,0.012005179189145565,0.2736983597278595,0.20821237564086914,0.022433189675211906,0.0062558469362556934,-0.12610453367233276,0.006083649583160877,0.039044469594955444,0.19762568175792694,-0.013098007068037987,-0.11543793231248856,0.3378266990184784,-0.11959563195705414,0.08643501251935959,0.04269256070256233,-0.09640482068061829,-0.02358062006533146,-0.19676782190799713,-0.07305996119976044,0.03697550669312477,0.033777542412281036,0.08347417414188385,-0.03212342783808708,-0.2527339458465576,0.10759303718805313,0.22343255579471588,0.008626628667116165,0.110372394323349,0.5283508896827698,-0.08744484931230545,-0.3623508810997009,-0.12542308866977692,-0.03145771846175194,0.08086615055799484,0.00357426842674613,-0.047217611223459244,0.2574723958969116,-0.047983959317207336,-0.027003033086657524,-0.2259499877691269,-0.1524517685174942,-0.12222840636968613,0.09345966577529907,0.19991852343082428,-0.09306010603904724,-0.0446726493537426,0.17438237369060516,-0.2065618932247162,-0.4150985777378082,-0.03652985021471977,-0.1385621428489685,-0.03403691574931145,-0.1281767636537552,-0.057207655161619186,-0.01599857583642006,-0.008573437109589577,-0.10575038939714432,-0.06957925111055374,-0.24830476939678192,-0.26019370555877686,0.06984008103609085,-0.01961812749505043,-0.12154058367013931
